OrderedDict([('lstm.weight_ih_l0', tensor([[-0.3788],
        [-0.6145],
        [ 0.0269],
        [-0.7299],
        [-0.3847],
        [-0.4319],
        [-0.4450],
        [ 0.1576],
        [ 0.4216],
        [-0.6419],
        [-0.3818],
        [ 0.0211],
        [-0.3940],
        [ 0.3041],
        [-0.4422],
        [-0.4351],
        [ 0.4246],
        [-0.2231],
        [-0.1504],
        [-0.1852],
        [ 0.1720],
        [-0.7475],
        [-0.4527],
        [-0.1566],
        [-0.3804],
        [-0.1867],
        [-0.2589],
        [ 0.3149],
        [ 0.1302],
        [ 0.1753],
        [-0.3917],
        [ 0.3636],
        [-0.4174],
        [ 0.5082],
        [ 0.3456],
        [ 0.2736],
        [-0.7600],
        [-0.2227],
        [-0.5873],
        [ 0.3848],
        [-0.1590],
        [ 0.4154],
        [ 0.3386],
        [-0.3538],
        [-0.4088],
        [-0.3779],
        [ 0.2710],
        [-0.9195],
        [ 0.3501],
        [ 0.1599],
        [ 0.0246],
        [-0.1434],
        [-1.4516],
        [-0.2808],
        [-0.1115],
        [-0.7249],
        [-0.3826],
        [ 0.1537],
        [ 0.3782],
        [-0.2956],
        [-0.7261],
        [-0.7839],
        [-0.0212],
        [-0.7026],
        [-0.0228],
        [ 0.3586],
        [-0.3498],
        [ 0.6139],
        [-0.2153],
        [-0.0490],
        [-0.0202],
        [-0.3842],
        [-0.0614],
        [ 0.3536],
        [-0.1782],
        [-0.3162],
        [-0.2120],
        [ 0.0980],
        [ 0.2791],
        [ 0.0351],
        [ 0.0965],
        [-0.1980],
        [-0.1686],
        [ 0.0350],
        [-0.4642],
        [ 0.6907],
        [-0.0246],
        [-0.0257],
        [-0.1687],
        [ 0.0309],
        [ 0.0338],
        [-0.0353],
        [-0.3816],
        [-0.2711],
        [-0.4127],
        [-0.0431],
        [ 0.0301],
        [-0.3925],
        [-0.0499],
        [-0.0283],
        [ 0.6627],
        [-0.1239],
        [ 0.0322],
        [-0.1885],
        [-0.0306],
        [-0.0617],
        [-0.0451],
        [ 0.1531],
        [-0.0437],
        [-0.2383],
        [-0.0394],
        [ 0.7246],
        [-0.0403],
        [ 0.3069],
        [ 0.1551],
        [-0.0293],
        [ 0.9370],
        [-0.2538],
        [ 0.0328],
        [ 0.6300],
        [-0.2088],
        [-0.3085],
        [-0.0606],
        [-0.3726],
        [ 0.4668],
        [ 0.5019],
        [-0.1525],
        [ 0.3528],
        [ 0.4467],
        [ 0.5113],
        [ 0.4311],
        [-0.4775],
        [ 0.2675],
        [ 0.5054],
        [-0.6586],
        [ 0.4651],
        [-0.4387],
        [-0.6952],
        [ 0.4572],
        [ 0.4115],
        [ 0.5850],
        [ 0.2911],
        [ 0.3653],
        [ 0.6410],
        [-0.4118],
        [-0.2123],
        [ 0.0921],
        [-0.1453],
        [ 0.4980],
        [ 0.4761],
        [ 0.2015],
        [-0.0774],
        [ 0.1652],
        [-0.0471],
        [-0.4722],
        [ 0.2730],
        [ 0.4224],
        [ 0.3623],
        [-0.5064],
        [-0.3186],
        [-0.8012],
        [-0.5312],
        [-0.2916],
        [ 0.1687],
        [ 0.6050],
        [-0.2797],
        [ 1.3893],
        [-0.3624],
        [ 0.0745],
        [-0.4218],
        [ 0.3178],
        [-0.7709],
        [ 0.6188],
        [-0.4245],
        [ 0.2959],
        [ 0.7739],
        [ 0.3245],
        [-0.0417],
        [ 0.0189],
        [ 0.1117],
        [ 1.2452],
        [-0.2956],
        [-0.2440],
        [ 0.5186],
        [ 0.5713],
        [-0.4158],
        [ 0.3349],
        [ 0.5003],
        [ 0.7759],
        [-0.5548],
        [-0.1704],
        [-0.6560],
        [-0.3173],
        [-0.1621],
        [ 0.1625],
        [ 0.3581],
        [-0.0754],
        [-0.2466],
        [-0.3254],
        [ 0.1625],
        [ 0.3085],
        [ 0.3231],
        [-0.0560],
        [ 0.0234],
        [-0.0295],
        [ 0.3387],
        [-0.0285],
        [-0.0362],
        [ 0.3184],
        [-0.2296],
        [ 0.1832],
        [-0.0342],
        [ 0.1693],
        [ 0.3330],
        [ 0.2156],
        [ 0.2143],
        [-0.0329],
        [ 0.0877],
        [-0.3552],
        [ 0.2827],
        [ 0.1655],
        [ 0.0257],
        [-0.0552],
        [ 0.3046],
        [-0.2973],
        [ 0.8279],
        [ 0.3068],
        [ 0.2547],
        [ 0.3587],
        [-0.2792],
        [-0.3434],
        [ 0.3026],
        [ 0.2069],
        [ 0.3142],
        [ 0.3291],
        [-0.3703],
        [-0.3527],
        [-0.0425],
        [ 0.3203],
        [ 0.3419],
        [ 0.3074],
        [-0.1650],
        [-0.1595],
        [ 0.2356],
        [ 0.3389],
        [-0.1213],
        [-0.1716],
        [ 0.3517],
        [-0.0927],
        [ 0.1577],
        [ 0.3252],
        [-0.1559],
        [ 0.2869],
        [ 0.2849],
        [ 0.2387],
        [ 0.3519]])), ('lstm.weight_hh_l0', tensor([[-0.0008, -0.0508, -0.0839,  ...,  0.0157,  0.0759,  0.0529],
        [-0.1213, -0.0307,  0.1200,  ..., -0.0470,  0.0514,  0.0456],
        [-0.0024, -0.0803, -0.0134,  ..., -0.1027,  0.1086,  0.0371],
        ...,
        [ 0.1072, -0.0799, -0.0747,  ..., -0.0378, -0.0651,  0.0312],
        [-0.0991, -0.0426, -0.0117,  ..., -0.1181, -0.0842,  0.0555],
        [ 0.0895, -0.0624,  0.0367,  ..., -0.1257, -0.0912, -0.0255]])), ('lstm.bias_ih_l0', tensor([-1.6239e-01,  1.2467e-01,  1.3660e-01,  1.0024e-01,  3.2804e-02,
         2.1945e-02, -1.9059e-02,  7.8491e-02,  2.1592e-01,  5.0772e-02,
         6.0054e-02,  2.2617e-01, -1.8876e-01,  2.8108e-01, -7.6393e-02,
         3.0859e-02,  4.0644e-01,  1.4828e-02,  4.1058e-02,  9.1350e-02,
         1.7755e-01,  9.1577e-04, -9.6166e-03,  1.0408e-01, -4.6113e-02,
        -1.2038e-01, -3.4595e-02,  4.2267e-02,  2.5034e-01,  1.1976e-01,
         1.2862e-01,  1.9867e-01,  4.3871e-04,  2.9717e-01,  1.8835e-01,
         5.0035e-02,  7.8841e-02,  5.7538e-02,  5.8398e-02,  1.6092e-01,
        -5.4331e-02,  2.8786e-01,  1.3540e-01, -5.2295e-02, -1.6012e-01,
        -8.1656e-02,  2.9468e-01,  1.0777e-01,  1.8663e-01,  9.7305e-02,
         6.2316e-02, -8.3088e-02,  1.0608e+00, -1.3356e-01, -7.3956e-02,
         1.2585e-01,  2.7810e-02,  7.5527e-02,  1.8825e-01,  1.5381e-02,
        -1.3226e-01, -7.3126e-02, -6.3169e-02,  4.0925e-02, -1.9064e-01,
        -1.2588e-01,  1.5023e-01, -2.1503e-01, -1.4649e-01, -7.9779e-02,
        -1.3782e-01, -2.6259e-02,  4.0757e-01,  9.8062e-02, -1.3610e-01,
         5.9362e-02, -2.6300e-01,  8.6925e-02, -1.0279e-01, -1.3862e-01,
         2.0609e-01, -4.7041e-02,  1.2885e-01, -1.6898e-01,  2.6479e-01,
        -2.2571e-01, -6.1789e-02, -1.0983e-01,  4.2328e-02, -1.0435e-01,
        -1.1893e-01,  3.6884e-02,  1.0388e-01,  1.4315e-01,  1.9490e-01,
         1.4974e-01, -7.0595e-02,  2.1257e-01,  2.1752e-01, -6.4064e-03,
        -1.0430e-01,  2.3744e-02, -2.0577e-01,  3.1333e-01, -1.3593e-02,
         2.4356e-01,  2.8296e-01, -2.8851e-01, -1.5833e-01, -3.0444e-02,
         3.2180e-02, -3.2599e-01,  7.7780e-02, -1.1407e-01,  9.0034e-02,
         2.1144e-02, -5.7990e-01,  6.8348e-03, -1.8071e-02, -2.9386e-01,
        -1.9411e-01,  6.6873e-02,  2.2419e-01, -1.6494e-02, -1.4416e-02,
        -6.6163e-02, -1.4729e-01,  1.3926e-01,  2.5466e-01, -3.3628e-01,
         3.5352e-01,  3.6598e-01,  2.3940e-01,  1.6867e-01, -2.0958e-01,
         3.0612e-01, -6.1106e-01,  2.8342e-01,  5.1526e-02,  5.0276e-01,
         1.4070e-01,  4.6304e-01, -2.4280e-01,  3.7733e-01, -5.4637e-01,
        -1.0999e-01,  3.2426e-01,  3.1258e-01,  5.4850e-01, -3.4375e-01,
        -3.2327e-01, -2.3183e-01,  8.5397e-02,  1.6495e-01, -2.3702e-01,
         3.6583e-01,  5.4599e-01,  3.5220e-01, -4.6602e-01, -3.6858e-01,
        -1.5805e-01, -4.3670e-01, -3.9145e-01,  2.4360e-01, -2.1745e-01,
         8.1081e-03,  9.7816e-02, -4.3876e-01,  1.0164e-01, -4.9532e-01,
         3.8242e-01, -2.4715e-01,  2.8620e-01, -1.3444e-01,  3.4351e-01,
        -5.7465e-01,  4.2932e-01, -2.6204e-01,  2.4029e-01,  3.7893e-01,
        -1.0176e+00, -1.1694e-01,  3.5684e-01, -3.3711e-01,  1.4422e-01,
        -3.3756e-01,  5.2923e-01,  4.4024e-01, -1.7335e-01,  2.1076e-01,
         7.0257e-02,  3.3169e-01, -1.0004e-01,  5.8162e-02,  1.8288e-01,
        -1.7927e-02, -1.2785e-01, -1.6214e-02, -1.4100e-01,  2.4349e-02,
         4.3359e-01, -1.0242e-01, -1.5486e-01,  2.8046e-01, -1.8345e-01,
         1.0661e-01, -8.2451e-02,  6.4356e-02,  4.0280e-01, -2.5160e-02,
         4.1159e-02,  3.5622e-02,  8.2695e-02,  1.5242e-01, -2.1421e-02,
        -9.4563e-02, -1.9003e-01,  2.0806e-02, -3.2390e-02,  1.6151e-01,
         2.6565e-01,  1.6352e-01,  1.0944e-01,  1.7596e-01,  6.8011e-02,
         3.8820e-01,  1.6970e-01,  9.7200e-02,  1.5434e-01, -1.3960e-01,
         9.6063e-02,  2.8585e-01, -1.3680e-01,  2.5742e-01,  1.0489e-01,
         8.4969e-03,  6.6889e-03, -2.2854e-02,  1.9918e-01,  2.2428e-01,
         1.0922e-01,  1.3085e-01,  2.1626e-02, -1.0634e-01,  5.0835e-01,
        -1.6565e-01, -6.5964e-02,  1.4295e-02, -2.0123e-01,  5.0875e-02,
         1.5538e-01, -4.5406e-02,  3.5628e-02,  6.4487e-02, -1.2888e-01,
        -5.5766e-02])), ('lstm.bias_hh_l0', tensor([-1.1258e-01,  1.0402e-01,  2.7431e-01,  6.9204e-02, -1.5975e-01,
        -1.1395e-01,  2.7559e-02, -1.7972e-02,  3.1992e-01, -1.7856e-01,
        -9.6090e-02,  5.2586e-02,  7.5259e-03,  2.6286e-01,  2.8480e-02,
         2.2276e-02,  2.7005e-01, -1.6843e-01, -4.3358e-02,  2.3485e-02,
         1.5021e-01,  5.7556e-02, -4.9122e-02,  6.6374e-02, -1.1145e-01,
         6.1761e-03,  4.6374e-03,  1.6915e-01,  2.1607e-01,  2.4073e-01,
         1.3935e-01,  5.8489e-02,  4.5209e-02,  3.5571e-01,  2.2906e-01,
         8.1602e-02, -6.7909e-04,  1.8620e-02,  2.2853e-01,  2.0708e-01,
        -1.2334e-02,  2.3125e-01,  1.9555e-01, -5.1538e-02, -1.4861e-01,
         3.2679e-02,  1.8378e-01,  1.6234e-01,  1.0511e-02,  1.0628e-01,
         4.8621e-02, -2.4779e-02,  1.0697e+00,  3.9126e-02, -1.6292e-01,
         9.9894e-02, -5.2370e-02,  1.9339e-01,  2.2300e-01,  1.7910e-01,
         5.9842e-02, -7.5931e-02, -1.4012e-01, -1.6449e-01,  1.5724e-02,
         8.6874e-02, -4.1534e-03, -1.6578e-01,  1.0132e-02, -2.5945e-01,
        -2.9936e-01,  8.3983e-02,  2.0927e-01, -2.6535e-03, -1.6339e-01,
         7.2527e-02, -1.8914e-01,  9.7514e-02, -1.2266e-01, -2.0706e-01,
         2.6618e-01,  8.4628e-03,  2.5200e-01,  5.8622e-02,  1.5111e-01,
        -1.7378e-01, -1.7840e-02,  2.5643e-02, -1.2001e-01, -8.9746e-02,
        -7.0448e-02,  6.1938e-02,  1.5229e-01,  3.0437e-02,  4.6805e-02,
         1.4329e-02,  5.7032e-02,  4.9935e-02,  3.1010e-02, -6.5592e-02,
        -2.5020e-01, -3.2283e-02, -2.0927e-02,  3.3466e-01,  1.4340e-01,
         1.5254e-01,  1.1593e-01, -1.6225e-01, -1.8873e-01, -1.0141e-01,
         4.0704e-02, -3.5132e-01,  1.7797e-01,  5.5839e-02, -1.0844e-01,
        -1.7691e-01, -3.5164e-01,  3.9577e-02, -2.0386e-01, -2.3062e-01,
        -3.5747e-02,  1.1093e-01,  2.8339e-01,  2.1596e-01, -1.9043e-01,
        -1.4645e-01,  2.7825e-02,  2.8500e-02,  1.8916e-01, -4.4115e-01,
         4.3405e-01,  2.4879e-01,  1.3929e-01,  4.0169e-01, -3.2926e-01,
         4.7041e-01, -4.5558e-01,  3.0321e-01,  8.6497e-02,  3.9808e-01,
         2.3177e-01,  3.4370e-01, -1.4295e-01,  4.1219e-01, -5.4804e-01,
        -1.3842e-01,  3.3200e-01,  4.6676e-01,  5.2824e-01, -3.3289e-01,
        -1.7341e-01, -1.5650e-01, -2.2103e-02,  2.1877e-01, -1.9658e-01,
         3.7354e-01,  4.4259e-01,  3.6006e-01, -3.4700e-01, -3.9559e-01,
        -2.8679e-01, -5.8615e-01, -4.5033e-01,  3.4954e-01, -2.7236e-01,
         4.9021e-02,  3.0459e-01, -5.7420e-01,  1.4354e-01, -4.9406e-01,
         3.0255e-01, -2.7605e-01,  2.6060e-01, -2.4973e-01,  3.7495e-01,
        -6.1107e-01,  3.4234e-01, -2.1254e-01,  1.0321e-01,  2.1163e-01,
        -9.8485e-01, -1.3236e-01,  4.0523e-01, -4.3384e-01,  3.5291e-01,
        -3.4283e-01,  4.9159e-01,  3.3115e-01, -2.7624e-01,  3.9259e-01,
         2.1778e-01,  2.7460e-01, -3.0843e-02,  2.0741e-01,  1.4714e-01,
         4.1826e-02, -1.2504e-01,  5.7437e-02,  4.9248e-02, -5.5683e-02,
         4.4559e-01,  4.5055e-02, -1.9188e-01,  7.4979e-02, -9.4216e-02,
         1.9959e-01, -5.8364e-02,  1.3122e-01,  4.0073e-01, -8.8737e-04,
        -1.4340e-01, -3.7616e-02,  1.9799e-01,  8.1239e-02,  6.5104e-02,
        -1.4974e-01, -7.5351e-02,  6.0792e-02, -7.8506e-02,  1.4360e-01,
         1.9453e-01,  1.9719e-01,  1.0709e-01,  2.7903e-01,  1.1544e-02,
         4.5684e-01,  1.4490e-01,  2.3391e-01,  1.6210e-01,  6.6076e-02,
         8.8375e-02,  2.6272e-01, -5.2398e-02,  3.6830e-01,  2.0690e-01,
         7.8488e-02,  2.8359e-02, -9.0957e-02,  1.7327e-01,  2.5934e-01,
         2.8126e-01,  1.3280e-01, -3.4025e-02,  1.1916e-01,  5.1388e-01,
        -1.7652e-01, -1.4654e-01,  7.3476e-02, -3.3202e-01, -6.5237e-02,
         2.0813e-01,  1.6322e-01,  1.4254e-01,  6.4896e-02, -3.0003e-02,
        -9.6687e-02])), ('lstm.weight_ih_l1', tensor([[-0.0897, -0.0018,  0.1102,  ...,  0.0417,  0.0237, -0.0628],
        [-0.0708,  0.1188,  0.0985,  ...,  0.0989, -0.0498, -0.0762],
        [ 0.0273, -0.1490, -0.0227,  ...,  0.0437,  0.0124, -0.0080],
        ...,
        [ 0.0269,  0.1008, -0.0178,  ...,  0.0681, -0.0678, -0.1020],
        [-0.0320,  0.1003,  0.0678,  ...,  0.0002, -0.0113,  0.0074],
        [ 0.0235, -0.1005, -0.0237,  ...,  0.0453,  0.0036,  0.0349]])), ('lstm.weight_hh_l1', tensor([[ 0.0754,  0.0529, -0.0523,  ..., -0.0900, -0.0271,  0.1088],
        [ 0.0880,  0.0522, -0.0241,  ..., -0.0113,  0.0878, -0.0664],
        [ 0.1170, -0.1063, -0.1326,  ..., -0.1023, -0.1131, -0.1087],
        ...,
        [-0.0359, -0.0573, -0.0660,  ..., -0.0887, -0.0669,  0.1205],
        [ 0.1095, -0.0414, -0.0199,  ...,  0.0703,  0.0555, -0.0773],
        [-0.0703,  0.0076, -0.0527,  ..., -0.0722, -0.0075,  0.0134]])), ('lstm.bias_ih_l1', tensor([-0.1030, -0.1142, -0.0501, -0.0425, -0.1562, -0.0073, -0.0867, -0.0568,
         0.1587, -0.1229, -0.0275, -0.0028, -0.1113,  0.0138, -0.1363, -0.1163,
        -0.0555,  0.0112, -0.0180, -0.0233, -0.1926,  0.0041, -0.0101, -0.1528,
        -0.1245, -0.1208,  0.0386, -0.1414, -0.0185, -0.0515, -0.0860, -0.0332,
         0.0399, -0.1057, -0.1004, -0.1740,  0.0234, -0.0311, -0.0667,  0.0816,
        -0.1931,  0.0992, -0.1865, -0.0342, -0.1277, -0.1256, -0.1114, -0.1256,
        -0.0585, -0.0882, -0.1519, -0.1871, -0.0377, -0.1754, -0.1630,  0.0596,
        -0.0358, -0.2161, -0.0499,  0.1084,  0.0106,  0.0389, -0.1875, -0.2740,
         0.0685,  0.0080, -0.0167, -0.0924, -0.0345, -0.1580, -0.1247, -0.0920,
         0.0807, -0.1414, -0.1790, -0.0458,  0.0366, -0.0703, -0.0887, -0.1757,
        -0.0819,  0.1519, -0.1633, -0.1093, -0.1621, -0.0991, -0.1978, -0.1880,
        -0.0315, -0.0879,  0.0668, -0.0205, -0.1489,  0.0418, -0.2090, -0.1841,
        -0.1668, -0.0404,  0.0057, -0.0613,  0.0069, -0.2008, -0.0442,  0.0269,
        -0.1294,  0.0535, -0.0641, -0.1144,  0.0009, -0.0513, -0.2225, -0.0283,
        -0.0725,  0.0286,  0.0526, -0.1839, -0.1300,  0.0621, -0.0850, -0.1274,
        -0.1668, -0.2071, -0.1403, -0.0308, -0.0425,  0.0370, -0.1449, -0.1510,
        -0.3331,  0.0066,  0.3034,  0.0660, -0.1060, -0.1539, -0.2569, -0.1220,
        -0.3252, -0.2087,  0.2664,  0.1579,  0.1230,  0.1631,  0.0428,  0.3460,
        -0.2041,  0.4365,  0.1233,  0.2030, -0.1845,  0.2439, -0.1833, -0.2147,
         0.2392, -0.0796,  0.3588,  0.1018,  0.0743,  0.2132,  0.0129,  0.0768,
         0.2173,  0.1813, -0.1517,  0.0809,  0.2084, -0.1900, -0.2374, -0.3086,
        -0.0032, -0.3900, -0.0922, -0.0571,  0.1575, -0.1760,  0.0638,  0.3116,
         0.0482,  0.2732,  0.1646, -0.2898, -0.1711,  0.2750,  0.1839, -0.2007,
        -0.0490,  0.1705, -0.1516, -0.3347,  0.2047,  0.2806, -0.1748, -0.1348,
        -0.1744, -0.1960,  0.0282, -0.1539, -0.0728, -0.1475, -0.0766, -0.0881,
        -0.1350, -0.1519, -0.1623, -0.0495, -0.0066, -0.0775, -0.0577, -0.0842,
        -0.1824, -0.0494, -0.1800, -0.0862, -0.0606, -0.1195,  0.0065, -0.1834,
        -0.0984, -0.2318, -0.0734, -0.0253, -0.1760, -0.0657, -0.2209, -0.0464,
        -0.0547, -0.2506, -0.0170, -0.2390, -0.1868, -0.0018, -0.0369,  0.0251,
        -0.2025,  0.0174, -0.2606, -0.0346, -0.0776, -0.2365, -0.1545, -0.1400,
        -0.2519, -0.1630, -0.1888, -0.1945, -0.2390, -0.0532,  0.0280, -0.0826,
        -0.2503, -0.0719, -0.0656,  0.0210, -0.0498, -0.1288, -0.1020, -0.0981])), ('lstm.bias_hh_l1', tensor([ 0.0367,  0.0174,  0.1192, -0.0622, -0.0730, -0.0535,  0.0343, -0.0694,
         0.0344,  0.0198, -0.0739, -0.0649, -0.1974, -0.1605, -0.1861, -0.1279,
        -0.0374, -0.0884, -0.1179, -0.1584, -0.1555, -0.0207,  0.0523, -0.1495,
         0.0689, -0.2079,  0.1346,  0.0064, -0.1087, -0.0158, -0.0812,  0.0012,
         0.0309, -0.0980, -0.1227, -0.1424,  0.0807, -0.0201,  0.0687, -0.1062,
        -0.0324,  0.1698, -0.1070, -0.2465, -0.1849, -0.1853, -0.1073,  0.0394,
        -0.2456, -0.0860, -0.1288, -0.1059, -0.1073,  0.0371, -0.0674, -0.1589,
        -0.0190, -0.1602,  0.0241, -0.0011, -0.0129,  0.0285, -0.1643, -0.0414,
        -0.0365, -0.1064, -0.0511, -0.0588,  0.0798, -0.1761,  0.0612, -0.0346,
        -0.1220,  0.0189, -0.1507, -0.1556, -0.0727,  0.0494, -0.0828, -0.1002,
        -0.1563,  0.0283, -0.0175,  0.0637, -0.0308, -0.0316, -0.1735, -0.0370,
        -0.1774, -0.1028, -0.0286, -0.0254, -0.0122, -0.0282, -0.1987, -0.0983,
        -0.0676,  0.0058,  0.0344, -0.0874, -0.0493, -0.0213, -0.0798, -0.0357,
        -0.0279, -0.0848, -0.1195, -0.1331, -0.1593, -0.1560, -0.1668, -0.1389,
        -0.0142,  0.0036,  0.0270,  0.0558,  0.0163, -0.1361, -0.0515, -0.0677,
        -0.1153, -0.0786, -0.0825,  0.1209, -0.1505,  0.0020, -0.1713, -0.1379,
        -0.1700, -0.0866,  0.3301, -0.0127, -0.1399, -0.1820, -0.2436, -0.2330,
        -0.3488, -0.2375,  0.0861,  0.0009,  0.0587,  0.2435, -0.0574,  0.1836,
        -0.2333,  0.3032,  0.1866,  0.0968, -0.2554,  0.3568, -0.3008, -0.2527,
         0.3515, -0.0644,  0.3727,  0.0097,  0.1839,  0.2555,  0.0219,  0.1949,
         0.2750, -0.0208, -0.2161,  0.1357,  0.3217, -0.0689, -0.2435, -0.2223,
         0.1481, -0.3309, -0.0910,  0.0949,  0.2219, -0.1246, -0.0553,  0.1441,
         0.1473,  0.3082,  0.0568, -0.2116, -0.2412,  0.1867,  0.1071, -0.3077,
         0.1453,  0.1311, -0.1311, -0.2277,  0.2691,  0.2090, -0.2181, -0.0728,
        -0.0193, -0.1478,  0.0174, -0.0983, -0.0368, -0.0434,  0.0097, -0.0961,
         0.0577, -0.2139, -0.1878, -0.2290,  0.0097, -0.0329, -0.0547, -0.0182,
        -0.1574, -0.1826, -0.0788, -0.0584, -0.0399, -0.1425,  0.0013,  0.0239,
        -0.0138, -0.0101, -0.0459, -0.2359, -0.0923, -0.1569,  0.0008, -0.0790,
        -0.0043, -0.0498, -0.2230, -0.0946, -0.1020, -0.2020,  0.0184, -0.0635,
        -0.2137,  0.0483, -0.0428, -0.1385, -0.2401, -0.1573, -0.1509, -0.2196,
        -0.1078, -0.0602, -0.1308, -0.0241, -0.0947, -0.1085, -0.0079, -0.0754,
        -0.2031, -0.1265, -0.2221, -0.1183, -0.0028, -0.0611, -0.1563, -0.1109])), ('lstm.weight_ih_l2', tensor([[-0.0284,  0.0471, -0.0552,  ..., -0.1065,  0.0592, -0.0525],
        [-0.0840,  0.0656, -0.1848,  ...,  0.0725,  0.1170,  0.0773],
        [ 0.1555, -0.0924, -0.0421,  ...,  0.0284, -0.0885,  0.1494],
        ...,
        [ 0.0584, -0.0722, -0.0799,  ..., -0.0322, -0.0544,  0.0992],
        [-0.0249,  0.0542, -0.1378,  ...,  0.0447,  0.0121,  0.0977],
        [-0.0877,  0.0722, -0.0803,  ...,  0.0508,  0.0649, -0.1411]])), ('lstm.weight_hh_l2', tensor([[-0.0382, -0.0234, -0.0229,  ..., -0.0056,  0.0392, -0.0641],
        [ 0.0181,  0.0669,  0.0085,  ...,  0.0581,  0.0572, -0.1167],
        [ 0.0945, -0.1028,  0.1540,  ..., -0.0472,  0.0084, -0.0723],
        ...,
        [-0.1436,  0.0795,  0.0217,  ..., -0.0523, -0.0520, -0.0850],
        [-0.0741,  0.0565,  0.0065,  ...,  0.0869,  0.1490,  0.0435],
        [ 0.0220, -0.1271,  0.0977,  ..., -0.0015,  0.0916, -0.1007]])), ('lstm.bias_ih_l2', tensor([-0.1776, -0.1342, -0.1033, -0.1848, -0.1508, -0.1684,  0.0104, -0.1456,
        -0.1801, -0.2361, -0.1392, -0.1324, -0.1755,  0.0080, -0.1095, -0.1632,
        -0.1477, -0.0540, -0.1053, -0.2457, -0.0383, -0.0120, -0.2520, -0.0339,
        -0.1272, -0.2323, -0.2484, -0.2338, -0.2510, -0.0499, -0.0285, -0.2273,
        -0.1659, -0.0250, -0.1555, -0.0620,  0.0476, -0.1814, -0.1975, -0.0671,
        -0.1916, -0.0569, -0.1778, -0.0888, -0.1528, -0.0401, -0.1539, -0.0720,
        -0.0580, -0.1919, -0.0898, -0.1358,  0.0556, -0.0710, -0.1900, -0.0562,
        -0.0109, -0.0079, -0.1395,  0.0158, -0.0650, -0.1366, -0.1912, -0.1958,
        -0.0944, -0.1895, -0.1398, -0.0280, -0.1963, -0.2094, -0.1162, -0.0934,
        -0.0907, -0.1843, -0.1608, -0.1605, -0.2148, -0.2265, -0.1520, -0.1268,
        -0.0937, -0.1961, -0.0696, -0.1202, -0.1551, -0.1213, -0.0369, -0.1412,
        -0.0263, -0.2425, -0.1732, -0.0330, -0.1436, -0.2249, -0.0600, -0.2085,
        -0.1943, -0.2331, -0.1788,  0.0206,  0.0089, -0.0877, -0.0873, -0.1969,
        -0.1846, -0.1920, -0.0611, -0.0297, -0.2419, -0.2201, -0.1215, -0.2653,
        -0.2300, -0.0999, -0.2842, -0.2025, -0.1344, -0.1992, -0.1309, -0.0997,
        -0.1183, -0.1430, -0.1730, -0.0921, -0.2438, -0.1964, -0.1975, -0.0393,
         0.1775,  0.2608, -0.2819,  0.2517, -0.1728, -0.2420,  0.2091, -0.0104,
        -0.2323, -0.2712,  0.1017,  0.1511,  0.0025, -0.2880,  0.0937,  0.0408,
         0.1484, -0.1840, -0.1797, -0.2579, -0.2273, -0.2022,  0.2218, -0.2501,
        -0.2908,  0.1362,  0.0646, -0.1945, -0.1058, -0.1886,  0.0699, -0.1493,
         0.2582, -0.2174, -0.2241, -0.2511,  0.3580,  0.3102, -0.0994, -0.2475,
         0.0645, -0.3180, -0.1789, -0.2168, -0.0406,  0.0658, -0.3256, -0.0564,
        -0.2445,  0.1399,  0.2835,  0.1688, -0.3257, -0.1620, -0.3554,  0.3690,
         0.1326,  0.1949,  0.1715, -0.1924,  0.0847,  0.0681, -0.3628,  0.2556,
        -0.1611, -0.2636, -0.0651, -0.0733, -0.0428, -0.2189, -0.1874, -0.1140,
        -0.1939, -0.0933, -0.2137, -0.2263, -0.2381, -0.1595, -0.0078, -0.0645,
        -0.1584, -0.2753, -0.1940, -0.0635, -0.0656, -0.1603, -0.0578, -0.1317,
        -0.1676, -0.2170, -0.2419, -0.0395, -0.1278, -0.1569, -0.0653, -0.0389,
        -0.2084, -0.0770, -0.2516, -0.0876, -0.1469, -0.2734, -0.1996, -0.0835,
        -0.1362, -0.1502, -0.2364, -0.1831, -0.2538, -0.0792, -0.0506, -0.1161,
        -0.0253, -0.0476, -0.2156, -0.1542, -0.0262, -0.1300, -0.0601, -0.0412,
        -0.0872, -0.0305, -0.2150, -0.2476, -0.0825, -0.0796, -0.1891, -0.1837])), ('lstm.bias_hh_l2', tensor([-0.0861, -0.2026, -0.2112, -0.0610, -0.1118,  0.0092, -0.2048, -0.2575,
        -0.1057, -0.1276, -0.0853, -0.1397, -0.0011,  0.0270, -0.0341, -0.1562,
        -0.2128, -0.1495, -0.2019, -0.2473, -0.0137, -0.2552, -0.1960,  0.0186,
        -0.1408, -0.2013, -0.1696, -0.2409, -0.0511, -0.1770, -0.2370, -0.0443,
        -0.0585, -0.2019,  0.0247,  0.0432, -0.1130,  0.0415, -0.2287, -0.1782,
        -0.0436, -0.1459, -0.1588, -0.0887, -0.2566, -0.0515, -0.1380, -0.0179,
        -0.2246, -0.2036, -0.1199,  0.0263, -0.1169, -0.2150, -0.1995, -0.0094,
        -0.1614, -0.0336, -0.1886,  0.0050, -0.1789, -0.1783, -0.2175, -0.2430,
        -0.0446, -0.1167, -0.2213, -0.0171, -0.1758, -0.2002, -0.1803, -0.1293,
        -0.2035, -0.0758, -0.2263, -0.2089, -0.0973, -0.2223, -0.1954, -0.2536,
        -0.2466, -0.2063, -0.0113, -0.1766, -0.0731, -0.0953, -0.2345, -0.1666,
        -0.0949, -0.1011, -0.1266, -0.1684, -0.2477, -0.1481, -0.1248, -0.1834,
        -0.1297, -0.0428, -0.0497, -0.0458, -0.0420, -0.1253, -0.2575, -0.0204,
        -0.2073, -0.0207, -0.1069, -0.0640, -0.1417, -0.0563, -0.1321, -0.1138,
        -0.1744, -0.2173, -0.1589, -0.1849, -0.0458, -0.1855, -0.0364, -0.0173,
        -0.1787, -0.0814, -0.1592, -0.1808, -0.2679, -0.0897, -0.1614, -0.1306,
         0.3219,  0.1858, -0.3813,  0.0488, -0.2097, -0.3294,  0.2528, -0.1621,
        -0.1935, -0.3204,  0.2204,  0.1517,  0.0078, -0.1791,  0.2863, -0.0757,
         0.2043, -0.2800, -0.1380, -0.1704, -0.1777, -0.1940,  0.1527, -0.2655,
        -0.3743,  0.0503, -0.0254, -0.0030, -0.0417, -0.0400,  0.2294, -0.2425,
         0.3619, -0.1599, -0.0825, -0.2657,  0.3125,  0.2516, -0.1820, -0.2320,
        -0.0242, -0.2613, -0.2742, -0.2294, -0.0407, -0.0053, -0.1113, -0.1608,
        -0.1792,  0.2097,  0.2064,  0.2981, -0.2846, -0.0160, -0.3186,  0.3329,
         0.1440,  0.3011,  0.0603, -0.2884,  0.1253,  0.0980, -0.2805,  0.0990,
        -0.0653, -0.1313, -0.1170, -0.2457, -0.0684, -0.1181, -0.1139, -0.1213,
        -0.1278, -0.2235, -0.2184, -0.0949, -0.1200, -0.2915, -0.1006, -0.2185,
        -0.1588, -0.1478, -0.2773, -0.1243, -0.0872, -0.2508, -0.1926, -0.0955,
        -0.2642, -0.0378, -0.2516, -0.1240, -0.2441, -0.2360, -0.2690,  0.0353,
        -0.0682, -0.2650, -0.3074, -0.2779,  0.0262, -0.2117, -0.0824, -0.1587,
        -0.0293, -0.2131, -0.1249, -0.1041, -0.2524, -0.1810, -0.1020, -0.2318,
        -0.1164, -0.0817, -0.0681, -0.1273, -0.1027, -0.1238, -0.0573, -0.2257,
        -0.0474, -0.1689, -0.2930, -0.1380, -0.1325, -0.0667, -0.0906, -0.1657])), ('bn.weight', tensor([ 0.4663,  0.5196,  0.5039,  0.4285,  0.4124,  0.4786,  0.3363,  0.3958,
         0.3753,  0.5176,  0.4429,  0.3650,  0.3764,  0.5199,  0.4014,  0.4453,
         0.3593,  0.4949,  0.5232,  0.4347,  0.4208,  0.5162,  0.4663,  0.3885,
         0.4827,  0.3666,  0.4054,  0.4103,  0.3712,  0.4096,  0.4690,  0.3487,
         0.4881,  0.3549,  0.4535,  0.4428,  0.4019,  0.3478,  0.4507,  0.4001,
         0.3809,  0.5136,  0.4918,  0.4480,  0.3893, -0.3777,  0.3745,  0.4640,
         0.4424,  0.3263,  0.5240,  0.3502,  0.3708,  0.3651,  0.4782,  0.4529,
         0.3696,  0.4439,  0.3812,  0.4305,  0.4217,  0.3957,  0.4629,  0.3916])), ('bn.bias', tensor([-2.3248, -2.2812,  2.3375, -2.3442,  2.3803,  2.3591,  2.3733,  2.3612,
        -2.3394,  2.2846, -2.3557,  2.3545, -2.3861,  2.2490,  2.4048,  2.3444,
         2.3705,  2.2802,  2.3241,  2.3103,  2.4254,  2.2577, -2.2997, -2.3969,
         2.3425,  2.3746,  2.3030,  2.3222, -2.3730, -2.3804, -2.3466, -2.3661,
        -2.3121, -2.2856, -2.3160,  2.3151,  2.3890,  2.3340,  2.3324,  2.3546,
        -2.3656,  2.2956,  2.3309,  2.3622, -2.3132,  2.3731, -2.3811,  2.3608,
         2.3726,  2.3484, -2.3534,  2.3620, -2.3685,  2.3804,  2.3415, -2.3465,
         2.3749, -2.3203, -2.3664,  2.3208, -2.3285, -2.3303,  2.3104,  2.3438])), ('bn.running_mean', tensor([ 0.1050,  0.0667, -0.0822,  0.0249, -0.0228, -0.0926,  0.2185,  0.0210,
        -0.1858, -0.0754,  0.0206,  0.1667, -0.0620, -0.0704,  0.2478, -0.0053,
         0.1518, -0.0749, -0.0835, -0.0550, -0.0100, -0.0667,  0.0260, -0.2792,
        -0.0952,  0.1260,  0.0906, -0.0368, -0.1320, -0.1440,  0.0669, -0.2195,
         0.1087, -0.1994, -0.1555, -0.1110,  0.2892,  0.2083, -0.0144, -0.1150,
        -0.1111, -0.0782, -0.0864, -0.0609, -0.0682, -0.0595, -0.2489, -0.0364,
        -0.0148,  0.2240,  0.0656,  0.2551, -0.2930, -0.0228, -0.1013,  0.1418,
         0.2004,  0.1099, -0.0151, -0.1157,  0.0322, -0.0163, -0.0804,  0.1669])), ('bn.running_var', tensor([3.3820e-06, 2.2313e-06, 2.9296e-06, 4.4780e-06, 7.7896e-06, 3.0515e-06,
        6.5764e-06, 5.8140e-06, 6.3579e-06, 2.2514e-06, 4.1829e-06, 5.0652e-06,
        7.7129e-06, 1.8395e-06, 8.1307e-06, 5.9468e-06, 5.5534e-06, 2.4176e-06,
        2.7484e-06, 3.0862e-06, 9.3197e-06, 2.0889e-06, 3.7937e-06, 7.5506e-06,
        2.9692e-06, 5.4478e-06, 4.5185e-06, 3.5713e-06, 5.6578e-06, 7.0897e-06,
        3.7825e-06, 7.9662e-06, 3.4217e-06, 7.2488e-06, 6.8771e-06, 3.4384e-06,
        8.5186e-06, 5.3298e-06, 4.4003e-06, 3.3892e-06, 6.9126e-06, 2.9824e-06,
        2.4571e-06, 4.4178e-06, 5.1061e-06, 7.4210e-06, 7.3615e-06, 5.4786e-06,
        6.0880e-06, 7.7612e-06, 2.2253e-06, 6.6283e-06, 8.3682e-06, 6.1557e-06,
        3.0782e-06, 3.8356e-06, 8.4364e-06, 4.2377e-06, 5.0632e-06, 3.5500e-06,
        4.7751e-06, 4.3518e-06, 2.4489e-06, 6.5202e-06])), ('bn.num_batches_tracked', tensor(801900)), ('fc.weight', tensor([[-2.0710, -2.1077,  2.1230, -2.0501,  2.0209,  2.1029,  2.0292,  2.0078,
         -2.0504,  2.1300, -2.0508,  2.0441, -2.0377,  2.0938,  2.0544,  2.0429,
          2.0792,  2.0881,  2.1431,  2.0522,  2.0373,  2.1089, -2.0694, -2.0728,
          2.0946,  2.0799,  2.0809,  2.0669, -2.0579, -2.0241, -2.0640, -2.0200,
         -2.0781, -1.9574, -2.0683,  2.0823,  2.0234,  2.0339,  2.0725,  2.0645,
         -2.0292,  2.1122,  2.1257,  2.0522, -2.0889,  2.0067, -2.0651,  2.0293,
          2.0862,  1.9893, -2.1953,  1.9952, -2.0202,  2.0254,  2.1324, -2.0570,
          2.0041, -2.0258, -2.0987,  2.0673, -2.0680, -2.0547,  2.1232,  2.0501]])), ('fc.bias', tensor([311.5479]))])
